digraph Tree {
node [shape=box, style="filled", color="black", fontname="helvetica"] ;
edge [fontname="helvetica"] ;
0 [label="x[3] <= 0.8\ngini = 0.667\nsamples = 120\nvalue = [40, 40, 40]", fillcolor="#ffffff"] ;
1 [label="gini = 0.0\nsamples = 40\nvalue = [40, 0, 0]", fillcolor="#e58139"] ;
0 -> 1 [labeldistance=2.5, labelangle=45, headlabel="True"] ;
2 [label="x[3] <= 1.65\ngini = 0.5\nsamples = 80\nvalue = [0, 40, 40]", fillcolor="#ffffff"] ;
0 -> 2 [labeldistance=2.5, labelangle=-45, headlabel="False"] ;
3 [label="x[2] <= 4.95\ngini = 0.13\nsamples = 43\nvalue = [0, 40, 3]", fillcolor="#48e78a"] ;
2 -> 3 ;
4 [label="(...)", fillcolor="#C0C0C0"] ;
3 -> 4 ;
5 [label="(...)", fillcolor="#C0C0C0"] ;
3 -> 5 ;
10 [label="gini = 0.0\nsamples = 37\nvalue = [0, 0, 37]", fillcolor="#8139e5"] ;
2 -> 10 ;
}